digraph Tree {
node [shape=box, style="filled, rounded", color="black", fontname=helvetica] ;
edge [fontname=helvetica] ;
0 [label="petal width (cm) <= 1.7\ngini = 0.66\nsamples = 96\nvalue = [42, 59, 49]\nclass = versicolor", fillcolor="#ebfcf3"] ;
1 [label="petal length (cm) <= 2.35\ngini = 0.51\nsamples = 63\nvalue = [42, 59, 2]\nclass = versicolor", fillcolor="#c8f8dc"] ;
0 -> 1 [labeldistance=2.5, labelangle=45, headlabel="True"] ;
2 [label="gini = 0.0\nsamples = 29\nvalue = [42, 0, 0]\nclass = setosa", fillcolor="#e58139"] ;
1 -> 2 ;
3 [label="sepal width (cm) <= 2.25\ngini = 0.06\nsamples = 34\nvalue = [0, 59, 2]\nclass = versicolor", fillcolor="#40e685"] ;
1 -> 3 ;
4 [label="petal width (cm) <= 1.25\ngini = 0.5\nsamples = 2\nvalue = [0, 1, 1]\nclass = versicolor", fillcolor="#ffffff"] ;
3 -> 4 ;
5 [label="gini = 0.0\nsamples = 1\nvalue = [0, 1, 0]\nclass = versicolor", fillcolor="#39e581"] ;
4 -> 5 ;
6 [label="gini = 0.0\nsamples = 1\nvalue = [0, 0, 1]\nclass = virginica", fillcolor="#8139e5"] ;
4 -> 6 ;
7 [label="petal length (cm) <= 5.25\ngini = 0.03\nsamples = 32\nvalue = [0, 58, 1]\nclass = versicolor", fillcolor="#3ce583"] ;
3 -> 7 ;
8 [label="gini = 0.0\nsamples = 31\nvalue = [0, 58, 0]\nclass = versicolor", fillcolor="#39e581"] ;
7 -> 8 ;
9 [label="gini = 0.0\nsamples = 1\nvalue = [0, 0, 1]\nclass = virginica", fillcolor="#8139e5"] ;
7 -> 9 ;
10 [label="gini = 0.0\nsamples = 33\nvalue = [0, 0, 47]\nclass = virginica", fillcolor="#8139e5"] ;
0 -> 10 [labeldistance=2.5, labelangle=-45, headlabel="False"] ;
}